{"size_input":7,"size_output":2,"rate_training":0.034,"network":[{"neuronas":[{"inputsX":[56.0,1.0,9.8,8.9,20.4,23.9,8.8],"weights":[0.9333603425382577,-1.6840120321317888,1.8415378255359336,0.3925763940136577,-1.8401130878061007,-0.5055555946352278,1.9525716267951168],"output":1.0,"valueNet":39.68671235975498,"errDelta":9.659801837424538E-5,"totalNet":39.68671235975498},{"inputsX":[56.0,1.0,9.8,8.9,20.4,23.9,8.8],"weights":[-1.9120952048080544,-1.736447857033808,1.1150771556594554,0.14361948196064311,-1.2170945504950135,-1.0469968944150319,1.5400200783944449],"output":1.9009384124556772E-58,"valueNet":-132.9075877281189,"errDelta":1.575555896903315E-33,"totalNet":-132.9075877281189},{"inputsX":[56.0,1.0,9.8,8.9,20.4,23.9,8.8],"weights":[-1.9810703163954815,-1.3708552454517657,0.7212420951536229,1.6805786252965402,0.4587970255582332,1.4356801357292133,1.4451390406005717],"output":1.901691686892091E-15,"valueNet":-33.89603254335284,"errDelta":-0.0,"totalNet":-33.89603254335284},{"inputsX":[56.0,1.0,9.8,8.9,20.4,23.9,8.8],"weights":[-1.133723567841572,-1.9804217991341175,0.2202180841846363,0.5125978021434188,1.7312027631254858,1.7606857638586793,1.4176487711822339],"output":0.9999999999999696,"valueNet":31.123551376209715,"errDelta":-0.0,"totalNet":31.123551376209715},{"inputsX":[56.0,1.0,9.8,8.9,20.4,23.9,8.8],"weights":[-0.6833739508012555,1.6584799814039362,-0.49908779636866196,-1.266671170080103,1.0046565326371342,-0.5264550041038376,-1.8369249671536978],"output":3.1351636886594832E-27,"valueNet":-61.02711612482891,"errDelta":1.1113759542452488E-20,"totalNet":-61.02711612482891},{"inputsX":[56.0,1.0,9.8,8.9,20.4,23.9,8.8],"weights":[0.37365730854045553,0.7127367467952896,-1.6917588169653621,-0.6708228327079899,-1.7033561392072536,-0.9193942923463263,0.03037424132723121],"output":1.218862722518754E-25,"valueNet":-57.36670909552639,"errDelta":-4.0133719817232734E-45,"totalNet":-57.36670909552639},{"inputsX":[56.0,1.0,9.8,8.9,20.4,23.9,8.8],"weights":[0.7571787636469218,1.1603269767459206,-1.4649152189047179,-0.7689577306105537,1.3643874059837162,1.8070532133554904,1.6456162516047854],"output":1.0,"valueNet":107.86594268865953,"errDelta":0.0,"totalNet":107.86594268865953},{"inputsX":[56.0,1.0,9.8,8.9,20.4,23.9,8.8],"weights":[-0.5152958538973813,-0.9386231868093646,-0.5932116984282039,-0.20281119394833258,1.4446105707388472,1.8242517624468517,1.7927836760428795],"output":1.0,"valueNet":51.4324838389303,"errDelta":0.0,"totalNet":51.4324838389303},{"inputsX":[56.0,1.0,9.8,8.9,20.4,23.9,8.8],"weights":[-1.5077059058478186,-0.6911260097586829,-1.478017808833278,-0.9419193128978169,0.7849685004579632,-0.7098865679718536,1.2694376370486689],"output":3.45204044998938E-43,"valueNet":-97.77219350774979,"errDelta":-1.3772051749358594E-22,"totalNet":-97.77219350774979},{"inputsX":[56.0,1.0,9.8,8.9,20.4,23.9,8.8],"weights":[1.1414907507714864,-1.3336240099579033,0.9442643838381612,-0.5443426707173065,1.9168433285780444,-0.3372030121367504,-0.43819921888235713],"output":1.0,"valueNet":94.18729801223432,"errDelta":0.0,"totalNet":94.18729801223432},{"inputsX":[56.0,1.0,9.8,8.9,20.4,23.9,8.8],"weights":[1.1221594005891582,-1.790547217731784,-1.5236097087098759,-0.7005674195783935,-0.169461045305946,-1.794094247065252,-0.8313192047041291],"output":1.0491672077091457E-6,"valueNet":-13.767512794840567,"errDelta":-1.8455202868283175E-37,"totalNet":-13.767512794840567},{"inputsX":[56.0,1.0,9.8,8.9,20.4,23.9,8.8],"weights":[0.31658170414897335,-0.5405243288379344,-0.1720747498717872,-1.7325622412762574,-1.0822229642421917,1.233057978272499,-1.8813752969325002],"output":1.1374351128459368E-4,"valueNet":-9.081450795431621,"errDelta":2.7142754495013324E-14,"totalNet":-9.081450795431621},{"inputsX":[56.0,1.0,9.8,8.9,20.4,23.9,8.8],"weights":[1.0185694495341697,1.5881281639215796,-1.5815222643069349,-1.2807023858044388,-1.8436701691892186,1.6214910186545763,-1.463550232190081],"output":0.999999997927209,"valueNet":19.994369765079224,"errDelta":2.2807864768301537E-15,"totalNet":19.994369765079224}],"output":[1.0,1.9009384124556772E-58,1.901691686892091E-15,0.9999999999999696,3.1351636886594832E-27,1.218862722518754E-25,1.0,1.0,3.45204044998938E-43,1.0,1.0491672077091457E-6,1.1374351128459368E-4,0.999999997927209],"size":13},{"neuronas":[{"inputsX":[1.0,1.9009384124556772E-58,1.901691686892091E-15,0.9999999999999696,3.1351636886594832E-27,1.218862722518754E-25,1.0,1.0,3.45204044998938E-43,1.0,1.0491672077091457E-6,1.1374351128459368E-4,0.999999997927209],"weights":[1.4103704397550865,-1.2777094633703299,1.6178994319431852,-0.5085909992954958,0.8475708113200651,-0.21445400934883718,-0.7694288411107912,-1.6383725974986991,-0.43849461335596196,0.2446906612639964,-0.626134802211911,0.2032240001070481,0.8764067894976341],"output":0.40494511858332444,"valueNet":-0.3849020907136115,"errDelta":-0.005747009731237092,"totalNet":-0.3849020907136115},{"inputsX":[1.0,1.9009384124556772E-58,1.901691686892091E-15,0.9999999999999696,3.1351636886594832E-27,1.218862722518754E-25,1.0,1.0,3.45204044998938E-43,1.0,1.0491672077091457E-6,1.1374351128459368E-4,0.999999997927209],"weights":[-1.621192636940406,-1.095519065939476,1.552294947190628,-0.5196101080747366,1.9832033334855628,1.5926686225607574,-0.9637317931781231,-0.36745860838916344,1.6852907456245942,-1.2603731841062717,-0.6666251446061864,0.6145100860169773,1.6052643396135255],"output":0.04200584919168098,"valueNet":-3.127032797268873,"errDelta":0.002340142886051121,"totalNet":-3.127032797268873},{"inputsX":[1.0,1.9009384124556772E-58,1.901691686892091E-15,0.9999999999999696,3.1351636886594832E-27,1.218862722518754E-25,1.0,1.0,3.45204044998938E-43,1.0,1.0491672077091457E-6,1.1374351128459368E-4,0.999999997927209],"weights":[0.40324837670249697,-1.2873095453421866,0.3261040948129369,-0.8345526806846443,1.508538151022707,1.404679782268853,1.696897676652194,-1.0381318716375478,1.3737325968747633,-1.1239946443921702,0.748392637476129,0.8654803681313185,-1.4667903294492888],"output":0.08602036324478189,"valueNet":-2.3632242418035516,"errDelta":-3.918409519148357E-4,"totalNet":-2.3632242418035516},{"inputsX":[1.0,1.9009384124556772E-58,1.901691686892091E-15,0.9999999999999696,3.1351636886594832E-27,1.218862722518754E-25,1.0,1.0,3.45204044998938E-43,1.0,1.0491672077091457E-6,1.1374351128459368E-4,0.999999997927209],"weights":[1.0067786908194076,0.29202995510282515,1.079410755090193,0.6183243231698099,-1.0257303515233427,1.127829973108105,-1.4296447399647916,-0.12983419026998522,-1.9416853357886725,-1.5479426730231112,0.5438372105120882,-0.33743884736404023,0.9282128814780545],"output":0.36490361591327813,"valueNet":-0.5541435206177996,"errDelta":-0.00904873229975076,"totalNet":-0.5541435206177996},{"inputsX":[1.0,1.9009384124556772E-58,1.901691686892091E-15,0.9999999999999696,3.1351636886594832E-27,1.218862722518754E-25,1.0,1.0,3.45204044998938E-43,1.0,1.0491672077091457E-6,1.1374351128459368E-4,0.999999997927209],"weights":[1.0417834799368344,1.060388265450705,-0.7903163723950404,0.7795682935578091,0.34138341186274346,-1.2721736522000295,1.0383366491553987,-1.7962367232498448,-1.3205633878191079,0.7274223910975408,0.7237874457271192,-1.5908141189214502,1.9549691589370821],"output":0.9769250666553849,"valueNet":3.7456630599729186,"errDelta":0.008308092899076105,"totalNet":3.7456630599729186},{"inputsX":[1.0,1.9009384124556772E-58,1.901691686892091E-15,0.9999999999999696,3.1351636886594832E-27,1.218862722518754E-25,1.0,1.0,3.45204044998938E-43,1.0,1.0491672077091457E-6,1.1374351128459368E-4,0.999999997927209],"weights":[0.7010147515261848,0.4068361333070407,-1.764097993661798,-1.647400130273223,-0.9037330465622184,-0.04758718957574182,-1.1262956925302763,-1.1775246650797595,0.23694153549455654,0.5292274692006868,-0.9579038090110709,-1.6004441732295307,1.9436612414746939],"output":0.31485892710251295,"valueNet":-0.7775000748515928,"errDelta":3.1462183831188417E-4,"totalNet":-0.7775000748515928},{"inputsX":[1.0,1.9009384124556772E-58,1.901691686892091E-15,0.9999999999999696,3.1351636886594832E-27,1.218862722518754E-25,1.0,1.0,3.45204044998938E-43,1.0,1.0491672077091457E-6,1.1374351128459368E-4,0.999999997927209],"weights":[-1.5637920082227508,1.0488760437303037,1.8442428427154622,0.20141703580668874,-1.1741033679254094,0.3059074985525152,-0.6812479745718011,-0.3500153307125015,-1.2135432305012763,0.6496813190256113,1.027692922097856,1.6933053266937474,-1.0842512139863034],"output":0.05582896607794315,"valueNet":-2.828014489698384,"errDelta":0.0038552755996565024,"totalNet":-2.828014489698384},{"inputsX":[1.0,1.9009384124556772E-58,1.901691686892091E-15,0.9999999999999696,3.1351636886594832E-27,1.218862722518754E-25,1.0,1.0,3.45204044998938E-43,1.0,1.0491672077091457E-6,1.1374351128459368E-4,0.999999997927209],"weights":[1.3737195040732693,1.4660179751836475,1.9009427674652033,0.6385519367430778,1.5013530252946459,-0.8395495399601827,0.20626982539693298,0.9776708810014044,1.7675723434863015,0.8785341829388487,0.11287286071744329,-1.7813786663648394,0.20648862331240683],"output":0.9863602381878144,"valueNet":4.281032451195981,"errDelta":-1.7799664345383043E-4,"totalNet":4.281032451195981},{"inputsX":[1.0,1.9009384124556772E-58,1.901691686892091E-15,0.9999999999999696,3.1351636886594832E-27,1.218862722518754E-25,1.0,1.0,3.45204044998938E-43,1.0,1.0491672077091457E-6,1.1374351128459368E-4,0.999999997927209],"weights":[-0.8023425172058245,0.4400178229097005,-1.2211929705056528,1.3871982336058064,0.15118194776444804,-0.07671813080414314,0.7650897814756249,-0.11664621564642166,-1.9805323973136217,1.6517474843012994,-0.483644840469784,1.5685972005022204,0.4919988771599352],"output":0.9669850821495164,"valueNet":3.3772235529996335,"errDelta":0.0032068124171251203,"totalNet":3.3772235529996335},{"inputsX":[1.0,1.9009384124556772E-58,1.901691686892091E-15,0.9999999999999696,3.1351636886594832E-27,1.218862722518754E-25,1.0,1.0,3.45204044998938E-43,1.0,1.0491672077091457E-6,1.1374351128459368E-4,0.999999997927209],"weights":[0.18505920463874145,-0.7764839288476479,-0.041203494277233466,1.8292905692617905,-1.1446001955227207,0.8805815783725044,0.555789150812237,1.008175430156513,-0.7352654172742179,1.364687910572011,1.0854792658958885,-0.201547413426179,-0.39001391089525855],"output":0.9895739454043017,"valueNet":4.552966569493153,"errDelta":-2.3002159905842693E-4,"totalNet":4.552966569493153},{"inputsX":[1.0,1.9009384124556772E-58,1.901691686892091E-15,0.9999999999999696,3.1351636886594832E-27,1.218862722518754E-25,1.0,1.0,3.45204044998938E-43,1.0,1.0491672077091457E-6,1.1374351128459368E-4,0.999999997927209],"weights":[2.1971081164744963,-1.8648639676405105,-2.575136677283531,-0.205500460531763,0.3756576842979391,0.9906863924131653,0.46026162367717505,-0.9766181502316975,-0.8540975278022431,-0.9468753582836877,-0.9637689117295496,0.6942260459062523,0.3538294039583452],"output":0.7072951175697273,"valueNet":0.8822831268828037,"errDelta":0.0021410602279744785,"totalNet":0.8822831268828037},{"inputsX":[1.0,1.9009384124556772E-58,1.901691686892091E-15,0.9999999999999696,3.1351636886594832E-27,1.218862722518754E-25,1.0,1.0,3.45204044998938E-43,1.0,1.0491672077091457E-6,1.1374351128459368E-4,0.999999997927209],"weights":[-0.14029853894757052,-0.7511502149320481,1.2862289433880332,-0.7736302710703001,-0.925737211180194,0.8622670944768642,-1.762471572168515,-0.5302925552296417,-0.7077524962426747,-0.49301963127530646,0.073538350303738,-1.489072049355518,1.2020753961809647],"output":0.07601209775576477,"valueNet":-2.497806470131418,"errDelta":0.0016495311287466267,"totalNet":-2.497806470131418},{"inputsX":[1.0,1.9009384124556772E-58,1.901691686892091E-15,0.9999999999999696,3.1351636886594832E-27,1.218862722518754E-25,1.0,1.0,3.45204044998938E-43,1.0,1.0491672077091457E-6,1.1374351128459368E-4,0.999999997927209],"weights":[-1.366403636033383,-1.164123000714381,-0.3350915273553238,1.3862714257215973,-0.8375456578103444,1.747652894955702,1.22980275200264,-0.9802421077437262,1.1664471116164332,0.15863804858846484,1.6532416690187286,-2.007362617230663,-0.8472206174219007],"output":0.39666494715656275,"valueNet":-0.419380723075799,"errDelta":-0.012525699133548245,"totalNet":-0.419380723075799}],"output":[0.40494511858332444,0.04200584919168098,0.08602036324478189,0.36490361591327813,0.9769250666553849,0.31485892710251295,0.05582896607794315,0.9863602381878144,0.9669850821495164,0.9895739454043017,0.7072951175697273,0.07601209775576477,0.39666494715656275],"size":13}],"outputLayer":{"neuronas":[{"inputsX":[0.40494511858332444,0.04200584919168098,0.08602036324478189,0.36490361591327813,0.9769250666553849,0.31485892710251295,0.05582896607794315,0.9863602381878144,0.9669850821495164,0.9895739454043017,0.7072951175697273,0.07601209775576477,0.39666494715656275],"weights":[-1.2070564459745774,0.8934358395972002,-0.4002639032006283,-1.804991745295828,1.8987180231983893,1.4750657832223335,1.4648182599985347,-1.3405909837348606,1.755373799373594,-1.7892261084171526,2.3585363529154733,0.6510142259375059,-2.0326573448791656],"output":0.684106091773555,"valueNet":0.7727065867719228,"errDelta":0.02228602852500007,"totalNet":0.7727065867719228},{"inputsX":[0.40494511858332444,0.04200584919168098,0.08602036324478189,0.36490361591327813,0.9769250666553849,0.31485892710251295,0.05582896607794315,0.9863602381878144,0.9669850821495164,0.9895739454043017,0.7072951175697273,0.07601209775576477,0.39666494715656275],"weights":[-0.339383991467952,-0.8122311663497123,-1.053562460250515,0.9753117887080516,1.2018758874837492,-1.6410194229497477,1.8335302738893848,0.027619294946233764,0.6527495995511704,-1.7639669094221246,-2.5724769927852864,-0.8687561092606878,2.5142989980887043],"output":0.2456771250460487,"valueNet":-1.1218023184316293,"errDelta":-0.006707560922579006,"totalNet":-1.1218023184316293}],"output":[0.684106091773555,0.2456771250460487],"size":2},"outputs":[0.684106091773555,0.2456771250460487]}