{"size_input":4,"size_output":3,"rate_training":0.06,"network":[{"neuronas":[{"inputsX":[5.9,3.0,5.1,1.8],"weights":[-0.36428621586868165,2.3276206432007576,-1.6408332369587748,-1.4773519386672676],"output":0.002037667538955098,"valueNet":-6.193909742113782,"errDelta":1.8508965070079E-4,"totalNet":-6.193909742113782},{"inputsX":[5.9,3.0,5.1,1.8],"weights":[-1.947481167906124,-1.1154460331943252,-0.8707129107228267,-0.9082852039849308],"output":8.279848962808352E-10,"valueNet":-20.9120262020884,"errDelta":8.012891322488793E-10,"totalNet":-20.9120262020884},{"inputsX":[5.9,3.0,5.1,1.8],"weights":[1.8733085765584867,2.8348769490034926,-2.7717099906575178,-3.8399498454682415],"output":0.18384980919186147,"valueNet":-1.490479225490625,"errDelta":-0.03848185057452843,"totalNet":-1.490479225490625},{"inputsX":[5.9,3.0,5.1,1.8],"weights":[1.2929959319208362,0.018334151983878548,0.5312368984989804,-0.6480281967402803],"output":0.9999016161871652,"valueNet":9.226535882496865,"errDelta":-7.464817542551019E-7,"totalNet":9.226535882496865},{"inputsX":[5.9,3.0,5.1,1.8],"weights":[-1.4925135397897529,2.0462252424964373,0.10434074037374928,-1.8326967296208923],"output":0.004347183327682679,"valueNet":-5.433870494681715,"errDelta":5.615395510431327E-4,"totalNet":-5.433870494681715},{"inputsX":[5.9,3.0,5.1,1.8],"weights":[-1.7698936309808944,0.19196274908281788,0.43540293043896233,-1.9533749346882248],"output":1.4203554377643888E-5,"valueNet":-11.162004112738922,"errDelta":-1.731432798071501E-7,"totalNet":-11.162004112738922},{"inputsX":[5.9,3.0,5.1,1.8],"weights":[-0.8472503311639594,-0.8032103806778272,-1.3545180184912868,-1.954987543962836],"output":1.795445457083498E-8,"valueNet":-17.835427569339508,"errDelta":-9.51476230475991E-9,"totalNet":-17.835427569339508},{"inputsX":[5.9,3.0,5.1,1.8],"weights":[1.6220442324403348,1.5420699564425964,-1.3829026296457125,-0.21870775619174218],"output":0.9988302484517309,"valueNet":6.749793468387495,"errDelta":1.0439825656505835E-4,"totalNet":6.749793468387495}],"size":8,"output":[0.002037667538955098,8.279848962808352E-10,0.18384980919186147,0.9999016161871652,0.004347183327682679,1.4203554377643888E-5,1.795445457083498E-8,0.9988302484517309]},{"neuronas":[{"inputsX":[0.002037667538955098,8.279848962808352E-10,0.18384980919186147,0.9999016161871652,0.004347183327682679,1.4203554377643888E-5,1.795445457083498E-8,0.9988302484517309],"weights":[-3.7536090527718016,-0.32451418975887225,-1.8552190666468475,0.1304301899494571,0.04712392753492875,1.2670829150279814,0.41353836851586256,3.0875428727181706],"output":0.9461317792971722,"valueNet":2.865841154248997,"errDelta":0.010941572673690505,"totalNet":2.865841154248997},{"inputsX":[0.002037667538955098,8.279848962808352E-10,0.18384980919186147,0.9999016161871652,0.004347183327682679,1.4203554377643888E-5,1.795445457083498E-8,0.9988302484517309],"weights":[2.456747884867619,1.84228623477757,-3.238531680351339,0.38546000756532817,1.8073840786202962,1.1527638050666904,-0.06780542342324297,1.1368628853978604],"output":0.7187826441478865,"valueNet":0.9384311303242473,"errDelta":0.03499488296204846,"totalNet":0.9384311303242473},{"inputsX":[0.002037667538955098,8.279848962808352E-10,0.18384980919186147,0.9999016161871652,0.004347183327682679,1.4203554377643888E-5,1.795445457083498E-8,0.9988302484517309],"weights":[0.9980122900133914,-0.6355806638570066,2.965362633161171,0.43351347970375287,-0.7782565245450097,1.9934366725813146,0.33916012266149764,-1.565788300294372],"output":0.35740942164548484,"valueNet":-0.5866258208117419,"errDelta":-0.021265521020848555,"totalNet":-0.5866258208117419},{"inputsX":[0.002037667538955098,8.279848962808352E-10,0.18384980919186147,0.9999016161871652,0.004347183327682679,1.4203554377643888E-5,1.795445457083498E-8,0.9988302484517309],"weights":[0.38866011629631475,1.3465462433296145,1.9583490684990597,0.999391094685267,-0.9709021041088061,1.707522654330414,1.7654937095993348,-0.3581022864270052],"output":0.7307137850292043,"valueNet":0.99824703399759,"errDelta":-0.009271931962084682,"totalNet":0.99824703399759}],"size":4,"output":[0.9461317792971722,0.7187826441478865,0.35740942164548484,0.7307137850292043]},{"neuronas":[{"inputsX":[0.9461317792971722,0.7187826441478865,0.35740942164548484,0.7307137850292043],"weights":[0.2952490172118065,-1.9643328571398406,-0.2393976386218794,-1.9367420537990876],"output":0.06702260789759147,"valueNet":-2.633350975371106,"errDelta":-0.004601770720367124,"totalNet":-2.633350975371106},{"inputsX":[0.9461317792971722,0.7187826441478865,0.35740942164548484,0.7307137850292043],"weights":[-2.9946775991324595,2.4683007127622805,1.2845708220571916,-0.9472113502028874],"output":0.2154788773871512,"valueNet":-1.2922106087724416,"errDelta":0.015347471594593393,"totalNet":-1.2922106087724416},{"inputsX":[0.9461317792971722,0.7187826441478865,0.35740942164548484,0.7307137850292043],"weights":[-3.1810846119446192,1.385597407909253,0.06537712919693203,0.5121242329449981],"output":0.1657297090965166,"valueNet":-1.6161992368170113,"errDelta":0.0033308738659610267,"totalNet":-1.6161992368170113},{"inputsX":[0.9461317792971722,0.7187826441478865,0.35740942164548484,0.7307137850292043],"weights":[4.374964251503506,1.0296226466207745,-2.3272399807745034,-1.8944017665853752],"output":0.9348275121722751,"valueNet":2.6633246192626836,"errDelta":0.021384078279457975,"totalNet":2.6633246192626836},{"inputsX":[0.9461317792971722,0.7187826441478865,0.35740942164548484,0.7307137850292043],"weights":[-2.5825871425452642,-2.4773136573273784,2.878483135247106,2.4450487317159975],"output":0.19644075627897686,"valueNet":-1.408690023445793,"errDelta":-0.01782547674710099,"totalNet":-1.408690023445793},{"inputsX":[0.9461317792971722,0.7187826441478865,0.35740942164548484,0.7307137850292043],"weights":[-0.299122913328728,-2.8513494641665718,1.898567854690384,0.5455154460624987],"output":0.22177911198175013,"valueNet":-1.2553285061757486,"errDelta":-0.018945934133576196,"totalNet":-1.2553285061757486}],"size":6,"output":[0.06702260789759147,0.2154788773871512,0.1657297090965166,0.9348275121722751,0.19644075627897686,0.22177911198175013]}],"outputLayer":{"neuronas":[{"inputsX":[0.06702260789759147,0.2154788773871512,0.1657297090965166,0.9348275121722751,0.19644075627897686,0.22177911198175013],"weights":[0.9112237400460679,1.9929000875738445,1.3230769641012634,-6.092778958076794,-0.09754889453494729,0.537958997438886],"output":0.007496619149930198,"valueNet":-4.885778280052493,"errDelta":0.0020747230705156603,"totalNet":-4.885778280052493},{"inputsX":[0.06702260789759147,0.2154788773871512,0.1657297090965166,0.9348275121722751,0.19644075627897686,0.22177911198175013],"weights":[0.7701466769602952,-3.9483677025539596,-2.0680509240727267,-1.31442229244986,1.385926017820178,2.666849640492274],"output":0.18138911943925462,"valueNet":-1.5069643007979736,"errDelta":-0.034108949759347536,"totalNet":-1.5069643007979736},{"inputsX":[0.06702260789759147,0.2154788773871512,0.1657297090965166,0.9348275121722751,0.19644075627897686,0.22177911198175013],"weights":[-1.708446513374912,-1.1903535329799693,-2.8088165419280737,3.7144804651753116,-4.23694473766146,-0.04831083200939918],"output":0.8572788646508472,"valueNet":1.792870638112249,"errDelta":0.016272034839738332,"totalNet":1.792870638112249}],"size":3,"output":[0.007496619149930198,0.18138911943925462,0.8572788646508472]},"outputs":[0.007496619149930198,0.18138911943925462,0.8572788646508472]}