{"size_input":4,"size_output":3,"rate_training":0.06,"network":[{"neuronas":[{"inputsX":[5.9,3.0,5.1,1.8],"weights":[2.2376010969541866,1.9303857919549268,-2.871152673695077,-3.609174974724759],"output":0.1046690702724835,"valueNet":-2.146389742454976,"errDelta":-0.23704556896111617,"totalNet":-2.146389742454976},{"inputsX":[5.9,3.0,5.1,1.8],"weights":[0.7472403123355424,0.042481504329710235,0.21730066956944885,1.5041610974116775],"output":0.9997641045051012,"valueNet":8.35188574591404,"errDelta":2.7025473728419526E-5,"totalNet":8.35188574591404},{"inputsX":[5.9,3.0,5.1,1.8],"weights":[-0.25194387160401244,1.5313433918622246,1.1334966864832512,-0.3975460939980562],"output":0.9997178561889102,"valueNet":8.172811464991081,"errDelta":-2.6769665072755126E-5,"totalNet":8.172811464991081},{"inputsX":[5.9,3.0,5.1,1.8],"weights":[-1.400818395336417,0.03234365852392453,2.322102741053082,1.145819719617724],"output":0.9967872238327062,"valueNet":5.737401917769532,"errDelta":0.004800224010893232,"totalNet":5.737401917769532},{"inputsX":[5.9,3.0,5.1,1.8],"weights":[-0.9598719092261314,-1.8025936524325048,0.674098156249667,-0.7343620468252099],"output":1.2907648866089823E-4,"valueNet":-8.954976309143767,"errDelta":1.257904399146429E-5,"totalNet":-8.954976309143767},{"inputsX":[5.9,3.0,5.1,1.8],"weights":[0.5112372098190853,-0.09270516673137703,-0.48974041429890747,-2.179012492698751],"output":0.02456131732170218,"valueNet":-3.681714562043707,"errDelta":5.2311186395582475E-5,"totalNet":-3.681714562043707},{"inputsX":[5.9,3.0,5.1,1.8],"weights":[-0.14434448805087807,-1.081247031670717,-1.8626588117675107,-0.6482563247941734],"output":3.8818054346676834E-7,"valueNet":-14.761794899156147,"errDelta":2.6636508235395974E-7,"totalNet":-14.761794899156147},{"inputsX":[5.9,3.0,5.1,1.8],"weights":[1.481274163743073,1.393808838452858,-1.6806022114048373,0.5977381582788989],"output":0.9956177516602299,"valueNet":5.425801488180054,"errDelta":2.694212411588992E-5,"totalNet":5.425801488180054}],"size":8,"output":[0.1046690702724835,0.9997641045051012,0.9997178561889102,0.9967872238327062,1.2907648866089823E-4,0.02456131732170218,3.8818054346676834E-7,0.9956177516602299]},{"neuronas":[{"inputsX":[0.1046690702724835,0.9997641045051012,0.9997178561889102,0.9967872238327062,1.2907648866089823E-4,0.02456131732170218,3.8818054346676834E-7,0.9956177516602299],"weights":[2.556573891947733,-0.14699217223136582,0.2692227759555951,-4.218122039364939,0.2600834716524297,0.5961103357948246,0.5364224060947917,-1.2691329722680311],"output":0.0062825128738707,"valueNet":-5.063682908478792,"errDelta":0.0017846866884219607,"totalNet":-5.063682908478792},{"inputsX":[0.1046690702724835,0.9997641045051012,0.9997178561889102,0.9967872238327062,1.2907648866089823E-4,0.02456131732170218,3.8818054346676834E-7,0.9956177516602299],"weights":[2.4929322624049206,-0.46225448998066776,-1.4501287380121615,2.342995343393483,0.7356170393819597,-1.353588960270559,-1.4686332410659078,-0.8805520014658719],"output":0.44390981434261156,"valueNet":-0.22530906456621413,"errDelta":-0.09169033065654073,"totalNet":-0.22530906456621413},{"inputsX":[0.1046690702724835,0.9997641045051012,0.9997178561889102,0.9967872238327062,1.2907648866089823E-4,0.02456131732170218,3.8818054346676834E-7,0.9956177516602299],"weights":[-0.907580690595988,-1.5713746135174802,-1.8916318853553975,-1.6470435842676707,1.715425385182114,-0.3124329694259078,-1.5145017262365454,-0.9472292175038484],"output":0.0021302553603349517,"valueNet":-6.149380891383736,"errDelta":-1.669901347768446E-4,"totalNet":-6.149380891383736},{"inputsX":[0.1046690702724835,0.9997641045051012,0.9997178561889102,0.9967872238327062,1.2907648866089823E-4,0.02456131732170218,3.8818054346676834E-7,0.9956177516602299],"weights":[-4.126206407542556,0.34757017282502817,-1.2986839217399477,2.8568630043516263,1.9516618165383735,-0.7032079160631911,1.6030991463944342,-0.29257511655247154],"output":0.7607247208904813,"valueNet":1.1566568744693773,"errDelta":0.17679171688806433,"totalNet":1.1566568744693773}],"size":4,"output":[0.0062825128738707,0.44390981434261156,0.0021302553603349517,0.7607247208904813]},{"neuronas":[{"inputsX":[0.0062825128738707,0.44390981434261156,0.0021302553603349517,0.7607247208904813],"weights":[1.0365769330511547,-1.2099228957374772,0.35309760222395514,2.4136680472148524],"output":0.7868941581936197,"valueNet":1.3063047995106034,"errDelta":0.08447241650400322,"totalNet":1.3063047995106034},{"inputsX":[0.0062825128738707,0.44390981434261156,0.0021302553603349517,0.7607247208904813],"weights":[2.317598485813658,-0.3811343373922655,0.8668941419223334,-1.814396232741226],"output":0.17754958216993819,"valueNet":-1.5330382924719441,"errDelta":-0.03123973747447932,"totalNet":-1.5330382924719441},{"inputsX":[0.0062825128738707,0.44390981434261156,0.0021302553603349517,0.7607247208904813],"weights":[2.468882952077908,0.7010357204544327,-1.582260563888319,-2.041150865336857],"output":0.22628346035755662,"valueNet":-1.2294171159314389,"errDelta":-0.06436538337697982,"totalNet":-1.2294171159314389},{"inputsX":[0.0062825128738707,0.44390981434261156,0.0021302553603349517,0.7607247208904813],"weights":[0.6514873036298272,-1.9329187444362355,-1.4315233377310783,2.342839938521185],"output":0.7161122722781446,"valueNet":0.925258124449129,"errDelta":0.05714937609860193,"totalNet":0.925258124449129},{"inputsX":[0.0062825128738707,0.44390981434261156,0.0021302553603349517,0.7607247208904813],"weights":[-3.233086031950146,1.4362565412602075,-1.578854240049188,2.986275724516874],"output":0.9471313312299509,"valueNet":2.8856268742881883,"errDelta":0.0012903322775649328,"totalNet":2.8856268742881883},{"inputsX":[0.0062825128738707,0.44390981434261156,0.0021302553603349517,0.7607247208904813],"weights":[-2.1693177953972222,1.8921201589402583,1.4488648621520572,-2.6558252602497103],"output":0.23308665237998147,"valueNet":-1.190963536206367,"errDelta":-0.09328821015124442,"totalNet":-1.190963536206367}],"size":6,"output":[0.7868941581936197,0.17754958216993819,0.22628346035755662,0.7161122722781446,0.9471313312299509,0.23308665237998147]}],"outputLayer":{"neuronas":[{"inputsX":[0.7868941581936197,0.17754958216993819,0.22628346035755662,0.7161122722781446,0.9471313312299509,0.23308665237998147],"weights":[0.4916547441334763,2.4489642240580043,1.3139524961428042,-0.9195351403662059,-4.995682091876933,-0.6011910074021012],"output":0.011995348098901916,"valueNet":-4.4111684899344965,"errDelta":8.490082796799928E-4,"totalNet":-4.4111684899344965},{"inputsX":[0.7868941581936197,0.17754958216993819,0.22628346035755662,0.7161122722781446,0.9471313312299509,0.23308665237998147],"weights":[-2.680831798205114,-0.49177871187607325,0.2745141090044952,-2.7333991588880315,1.600030671630797,3.0371921366724965],"output":0.1336828874740855,"valueNet":-1.8687805383307123,"errDelta":-0.07332839376217448,"totalNet":-1.8687805383307123},{"inputsX":[0.7868941581936197,0.17754958216993819,0.22628346035755662,0.7161122722781446,0.9471313312299509,0.23308665237998147],"weights":[1.9706210769519652,-2.617788404213759,-3.376062290043459,0.5884770025746647,1.859834049651809,-2.2307324796253036],"output":0.879203030902899,"valueNet":1.9849046554950935,"errDelta":0.07142824905020773,"totalNet":1.9849046554950935}],"size":3,"output":[0.011995348098901916,0.1336828874740855,0.879203030902899]},"outputs":[0.011995348098901916,0.1336828874740855,0.879203030902899]}